encog,BasicNetwork,java,3.4.0,1,1576330194773
[BASIC]
[BASIC:PARAMS]
[BASIC:NETWORK]
beginTraining=0
connectionLimit=0
contextTargetOffset=0,0,0
contextTargetSize=0,0,0
endTraining=2
hasContext=f
inputCount=9
layerCounts=1,11,10
layerFeedCounts=1,10,9
layerContextCount=0,0,0
layerIndex=0,1,12
output=0.0053269739,0.0439790636,0.8625781172,0.797360872,-0.313317573,0.8249162481,0.6699903312,0.0776860811,-0.9774053376,0.9856191894,-0.9642088557,1,0,1,1,1,1,0,0,0,0,1
outputCount=1
weightIndex=0,11,111
weights=0.3532306783,-0.2337053193,-0.8669538245,-0.5347384831,1.3760593411,-0.8303511069,-0.2731188688,0.8149396979,-0.649827477,-1.3264065821,0.3156003657,0.1124864141,0.108182276,0.8367091671,-0.8218278415,-0.8302508588,0.9464070594,0.8890984022,-0.6614930846,0.6971114226,0.7511947079,-0.9993707129,0.8710022999,0.085804401,0.3695981286,0.9278063206,-0.663881341,0.3969948645,0.3903651391,0.0257901729,-0.9508805198,0.2163821753,0.7843616328,-0.2302453314,-0.1670620081,1.1500153858,1.0696495824,-0.8625079787,1.1293023859,-0.7529282139,-0.4457456876,-0.6116803787,-0.2952270807,0.1211544217,-0.3620166834,0.7737283877,0.298774405,-0.1020984841,-0.2041233631,0.4719300317,-0.5618589396,-0.4060546531,0.7167373595,-0.0393052109,0.1571218952,0.0588371149,0.9725093545,-0.9601433837,0.5368525095,1.156820323,0.2786213074,-0.1483145175,1.2024667203,-0.0534548424,0.3750723292,-1.1367052306,0.551798987,0.4239135665,-0.1726357069,-0.5352165455,0.4233466046,0.717671791,0.1695248717,0.6197635198,-0.7648495405,0.0549912876,1.0294258168,-0.6192977509,0.8232540812,-0.9466158406,-0.0015872073,-0.1082132324,0.2169169613,-1.0060969734,-1.2135077765,-0.1627856069,0.2650543461,0.4538699977,0.4504251585,-0.2803965276,-0.0704401681,-0.8632988322,0.8074872319,0.1663413986,0.4558740294,0.718323391,-0.5888947761,0.9969013494,0.598365458,0.6271610115,0.3158696291,0.1213784074,-0.8650453561,-0.2071193259,-0.5068460725,-0.7769168292,-0.5730154199,-0.9729583524,-0.9681308685,1.1953204716,0.35335542
biasActivation=0,1,1
[BASIC:ACTIVATION]
"org.encog.engine.network.activation.ActivationTANH"
"org.encog.engine.network.activation.ActivationTANH"
"org.encog.engine.network.activation.ActivationLinear"
